
\data\
ngram 1=12

\1-grams:
-0.449969	</s>
-99	<s>
-1.190332	ba
-1.190332	bay
-1.190332	bon
-1.190332	chin
-1.190332	hai
-1.190332	khong
-1.190332	mot
-1.190332	nam
-1.190332	sau
-1.190332	tam

\end\
