
\data\
ngram 1=13

\1-grams:
-1.230449	...
-0.4522977	</s>
-99	<s>
-1.230449	eight
-1.230449	five
-1.230449	four
-1.230449	nine
-1.230449	one
-1.230449	seven
-1.230449	six
-1.230449	three
-1.230449	two
-1.230449	zero

\end\
